digraph Tree {
0 [label="X[0] <= 5.5000\nmse = 59.725654444\nsamples = 318", shape="box"] ;
1 [label="X[1] <= 74.5000\nmse = 32.8840640138\nsamples = 170", shape="box"] ;
0 -> 1 ;
2 [label="X[1] <= 69.5000\nmse = 27.1997995099\nsamples = 67", shape="box"] ;
1 -> 2 ;
3 [label="X[1] <= 47.0000\nmse = 29.7186205621\nsamples = 52", shape="box"] ;
2 -> 3 ;
4 [label="mse = 0.0000\nsamples = 2\nvalue = [ 26.]", shape="box"] ;
3 -> 4 ;
5 [label="X[1] <= 48.5000\nmse = 28.380164\nsamples = 50", shape="box"] ;
3 -> 5 ;
6 [label="mse = 0.2600\nsamples = 3\nvalue = [ 43.6]", shape="box"] ;
5 -> 6 ;
7 [label="X[1] <= 56.0000\nmse = 24.0544680851\nsamples = 47", shape="box"] ;
5 -> 7 ;
8 [label="X[1] <= 53.5000\nmse = 34.9926530612\nsamples = 7", shape="box"] ;
7 -> 8 ;
9 [label="X[1] <= 50.5000\nmse = 26.1555555556\nsamples = 6", shape="box"] ;
8 -> 9 ;
10 [label="mse = 0.0000\nsamples = 1\nvalue = [ 29.]", shape="box"] ;
9 -> 10 ;
11 [label="X[1] <= 52.5000\nmse = 27.2864\nsamples = 5", shape="box"] ;
9 -> 11 ;
12 [label="mse = 33.8200\nsamples = 4\nvalue = [ 34.2]", shape="box"] ;
11 -> 12 ;
13 [label="mse = -0.0000\nsamples = 1\nvalue = [ 33.]", shape="box"] ;
11 -> 13 ;
14 [label="mse = -0.0000\nsamples = 1\nvalue = [ 23.]", shape="box"] ;
8 -> 14 ;
15 [label="X[1] <= 59.0000\nmse = 21.46344375\nsamples = 40", shape="box"] ;
7 -> 15 ;
16 [label="mse = 2.4025\nsamples = 2\nvalue = [ 37.55]", shape="box"] ;
15 -> 16 ;
17 [label="X[1] <= 61.5000\nmse = 21.6948199446\nsamples = 38", shape="box"] ;
15 -> 17 ;
18 [label="X[1] <= 60.5000\nmse = 25.1784\nsamples = 5", shape="box"] ;
17 -> 18 ;
19 [label="mse = 31.3369\nsamples = 4\nvalue = [ 31.175]", shape="box"] ;
18 -> 19 ;
20 [label="mse = 0.0000\nsamples = 1\nvalue = [ 32.]", shape="box"] ;
18 -> 20 ;
21 [label="X[1] <= 67.5000\nmse = 20.2591919192\nsamples = 33", shape="box"] ;
17 -> 21 ;
22 [label="X[1] <= 63.5000\nmse = 21.7832\nsamples = 25", shape="box"] ;
21 -> 22 ;
23 [label="X[1] <= 62.5000\nmse = 10.336875\nsamples = 4", shape="box"] ;
22 -> 23 ;
24 [label="mse = 15.6025\nsamples = 2\nvalue = [ 33.75]", shape="box"] ;
23 -> 24 ;
25 [label="mse = 4.4100\nsamples = 2\nvalue = [ 32.6]", shape="box"] ;
23 -> 25 ;
26 [label="X[1] <= 64.5000\nmse = 23.6341950113\nsamples = 21", shape="box"] ;
22 -> 26 ;
27 [label="mse = 0.0000\nsamples = 1\nvalue = [ 39.]", shape="box"] ;
26 -> 27 ;
28 [label="X[1] <= 66.5000\nmse = 23.8039\nsamples = 20", shape="box"] ;
26 -> 28 ;
29 [label="X[1] <= 65.5000\nmse = 22.9572839506\nsamples = 9", shape="box"] ;
28 -> 29 ;
30 [label="mse = 25.6800\nsamples = 8\nvalue = [ 34.95]", shape="box"] ;
29 -> 30 ;
31 [label="mse = -0.0000\nsamples = 1\nvalue = [ 36.1]", shape="box"] ;
29 -> 31 ;
32 [label="X[0] <= 4.5000\nmse = 23.792892562\nsamples = 11", shape="box"] ;
28 -> 32 ;
33 [label="mse = 25.4441\nsamples = 10\nvalue = [ 33.57]", shape="box"] ;
32 -> 33 ;
34 [label="mse = -0.0000\nsamples = 1\nvalue = [ 36.4]", shape="box"] ;
32 -> 34 ;
35 [label="X[1] <= 68.5000\nmse = 13.294375\nsamples = 8", shape="box"] ;
21 -> 35 ;
36 [label="mse = 6.9976\nsamples = 5\nvalue = [ 32.62]", shape="box"] ;
35 -> 36 ;
37 [label="mse = 23.7756\nsamples = 3\nvalue = [ 32.76666667]", shape="box"] ;
35 -> 37 ;
38 [label="X[1] <= 73.0000\nmse = 9.80515555556\nsamples = 15", shape="box"] ;
2 -> 38 ;
39 [label="X[1] <= 70.5000\nmse = 8.58082840237\nsamples = 13", shape="box"] ;
38 -> 39 ;
40 [label="mse = 8.3556\nsamples = 6\nvalue = [ 30.86666667]", shape="box"] ;
39 -> 40 ;
41 [label="X[1] <= 71.5000\nmse = 7.40244897959\nsamples = 7", shape="box"] ;
39 -> 41 ;
42 [label="mse = 6.8296\nsamples = 5\nvalue = [ 29.02]", shape="box"] ;
41 -> 42 ;
43 [label="mse = 8.7025\nsamples = 2\nvalue = [ 29.45]", shape="box"] ;
41 -> 43 ;
44 [label="mse = 4.8400\nsamples = 2\nvalue = [ 33.8]", shape="box"] ;
38 -> 44 ;
45 [label="X[1] <= 84.5000\nmse = 18.7732943727\nsamples = 103", shape="box"] ;
1 -> 45 ;
46 [label="X[1] <= 81.5000\nmse = 15.8518869165\nsamples = 39", shape="box"] ;
45 -> 46 ;
47 [label="X[1] <= 80.5000\nmse = 16.3631153389\nsamples = 29", shape="box"] ;
46 -> 47 ;
48 [label="X[0] <= 4.5000\nmse = 16.6014668367\nsamples = 28", shape="box"] ;
47 -> 48 ;
49 [label="X[1] <= 78.6407\nmse = 16.922085048\nsamples = 27", shape="box"] ;
48 -> 49 ;
50 [label="X[1] <= 77.0000\nmse = 20.7593197279\nsamples = 21", shape="box"] ;
49 -> 50 ;
51 [label="X[1] <= 75.5000\nmse = 13.1007100592\nsamples = 13", shape="box"] ;
50 -> 51 ;
52 [label="mse = 10.7308\nsamples = 12\nvalue = [ 28.70833333]", shape="box"] ;
51 -> 52 ;
53 [label="mse = -0.0000\nsamples = 1\nvalue = [ 22.]", shape="box"] ;
51 -> 53 ;
54 [label="X[1] <= 78.1407\nmse = 32.76234375\nsamples = 8", shape="box"] ;
50 -> 54 ;
55 [label="mse = 8.9325\nsamples = 4\nvalue = [ 29.95]", shape="box"] ;
54 -> 55 ;
56 [label="mse = 54.9269\nsamples = 4\nvalue = [ 28.125]", shape="box"] ;
54 -> 56 ;
57 [label="X[1] <= 79.5000\nmse = 2.55472222222\nsamples = 6", shape="box"] ;
49 -> 57 ;
58 [label="mse = 1.0000\nsamples = 2\nvalue = [ 27.]", shape="box"] ;
57 -> 58 ;
59 [label="mse = 3.2019\nsamples = 4\nvalue = [ 27.625]", shape="box"] ;
57 -> 59 ;
60 [label="mse = -0.0000\nsamples = 1\nvalue = [ 25.4]", shape="box"] ;
48 -> 60 ;
61 [label="mse = -0.0000\nsamples = 1\nvalue = [ 25.]", shape="box"] ;
47 -> 61 ;
62 [label="X[1] <= 83.5000\nmse = 12.2921\nsamples = 10", shape="box"] ;
46 -> 62 ;
63 [label="X[1] <= 82.5000\nmse = 15.046875\nsamples = 4", shape="box"] ;
62 -> 63 ;
64 [label="mse = 0.0000\nsamples = 1\nvalue = [ 31.]", shape="box"] ;
63 -> 64 ;
65 [label="mse = 18.5000\nsamples = 3\nvalue = [ 28.5]", shape="box"] ;
63 -> 65 ;
66 [label="mse = 10.0489\nsamples = 6\nvalue = [ 30.13333333]", shape="box"] ;
62 -> 66 ;
67 [label="X[0] <= 3.5000\nmse = 15.9655859375\nsamples = 64", shape="box"] ;
45 -> 67 ;
68 [label="X[1] <= 98.5000\nmse = 4.9325\nsamples = 4", shape="box"] ;
67 -> 68 ;
69 [label="X[1] <= 93.5000\nmse = 0.25\nsamples = 2", shape="box"] ;
68 -> 69 ;
70 [label="mse = 0.0000\nsamples = 1\nvalue = [ 18.]", shape="box"] ;
69 -> 70 ;
71 [label="mse = 0.0000\nsamples = 1\nvalue = [ 19.]", shape="box"] ;
69 -> 71 ;
72 [label="X[1] <= 105.0000\nmse = 1.21\nsamples = 2", shape="box"] ;
68 -> 72 ;
73 [label="mse = 0.0000\nsamples = 1\nvalue = [ 23.7]", shape="box"] ;
72 -> 73 ;
74 [label="mse = -0.0000\nsamples = 1\nvalue = [ 21.5]", shape="box"] ;
72 -> 74 ;
75 [label="X[1] <= 101.0000\nmse = 15.2889888889\nsamples = 60", shape="box"] ;
67 -> 75 ;
76 [label="X[1] <= 99.0000\nmse = 15.1256132257\nsamples = 51", shape="box"] ;
75 -> 76 ;
77 [label="X[1] <= 93.5000\nmse = 14.393504\nsamples = 50", shape="box"] ;
76 -> 77 ;
78 [label="X[1] <= 87.5000\nmse = 17.7157575758\nsamples = 33", shape="box"] ;
77 -> 78 ;
79 [label="X[1] <= 86.5000\nmse = 5.3824\nsamples = 5", shape="box"] ;
78 -> 79 ;
80 [label="X[1] <= 85.5000\nmse = 4.80888888889\nsamples = 3", shape="box"] ;
79 -> 80 ;
81 [label="mse = 0.0000\nsamples = 1\nvalue = [ 23.8]", shape="box"] ;
80 -> 81 ;
82 [label="mse = 6.2500\nsamples = 2\nvalue = [ 25.5]", shape="box"] ;
80 -> 82 ;
83 [label="mse = 4.0000\nsamples = 2\nvalue = [ 23.]", shape="box"] ;
79 -> 83 ;
84 [label="X[1] <= 91.5000\nmse = 19.0422959184\nsamples = 28", shape="box"] ;
78 -> 84 ;
85 [label="X[1] <= 90.5000\nmse = 18.8787603306\nsamples = 22", shape="box"] ;
84 -> 85 ;
86 [label="X[1] <= 89.5000\nmse = 17.8713378685\nsamples = 21", shape="box"] ;
85 -> 86 ;
87 [label="X[1] <= 88.5000\nmse = 20.9268639053\nsamples = 13", shape="box"] ;
86 -> 87 ;
88 [label="mse = 22.6141\nsamples = 12\nvalue = [ 26.35833333]", shape="box"] ;
87 -> 88 ;
89 [label="mse = -0.0000\nsamples = 1\nvalue = [ 25.5]", shape="box"] ;
87 -> 89 ;
90 [label="mse = 12.7619\nsamples = 8\nvalue = [ 26.775]", shape="box"] ;
86 -> 90 ;
91 [label="mse = -0.0000\nsamples = 1\nvalue = [ 20.]", shape="box"] ;
85 -> 91 ;
92 [label="X[1] <= 92.5000\nmse = 17.1388888889\nsamples = 6", shape="box"] ;
84 -> 92 ;
93 [label="mse = 19.6384\nsamples = 5\nvalue = [ 28.36]", shape="box"] ;
92 -> 93 ;
94 [label="mse = -0.0000\nsamples = 1\nvalue = [ 26.]", shape="box"] ;
92 -> 94 ;
95 [label="X[1] <= 94.5000\nmse = 6.12830449827\nsamples = 17", shape="box"] ;
77 -> 95 ;
96 [label="mse = 0.0000\nsamples = 1\nvalue = [ 22.]", shape="box"] ;
95 -> 96 ;
97 [label="X[1] <= 97.5000\nmse = 6.0825\nsamples = 16", shape="box"] ;
95 -> 97 ;
98 [label="X[1] <= 95.5000\nmse = 5.9696\nsamples = 15", shape="box"] ;
97 -> 98 ;
99 [label="mse = 3.3278\nsamples = 7\nvalue = [ 24.22857143]", shape="box"] ;
98 -> 99 ;
100 [label="X[1] <= 96.5000\nmse = 7.585\nsamples = 8", shape="box"] ;
98 -> 100 ;
101 [label="mse = 12.0556\nsamples = 3\nvalue = [ 27.16666667]", shape="box"] ;
100 -> 101 ;
102 [label="mse = 2.0736\nsamples = 5\nvalue = [ 24.42]", shape="box"] ;
100 -> 102 ;
103 [label="mse = -0.0000\nsamples = 1\nvalue = [ 22.]", shape="box"] ;
97 -> 103 ;
104 [label="mse = -0.0000\nsamples = 1\nvalue = [ 32.9]", shape="box"] ;
76 -> 104 ;
105 [label="X[1] <= 104.0000\nmse = 7.68765432098\nsamples = 9", shape="box"] ;
75 -> 105 ;
106 [label="X[0] <= 4.5000\nmse = 0.0225000000001\nsamples = 2", shape="box"] ;
105 -> 106 ;
107 [label="mse = 0.0000\nsamples = 1\nvalue = [ 20.]", shape="box"] ;
106 -> 107 ;
108 [label="mse = 0.0000\nsamples = 1\nvalue = [ 20.3]", shape="box"] ;
106 -> 108 ;
109 [label="X[1] <= 107.5000\nmse = 7.65265306122\nsamples = 7", shape="box"] ;
105 -> 109 ;
110 [label="mse = 5.5225\nsamples = 2\nvalue = [ 25.55]", shape="box"] ;
109 -> 110 ;
111 [label="X[1] <= 112.5000\nmse = 5.7056\nsamples = 5", shape="box"] ;
109 -> 111 ;
112 [label="X[1] <= 111.0000\nmse = 4.16666666667\nsamples = 3", shape="box"] ;
111 -> 112 ;
113 [label="mse = 1.5625\nsamples = 2\nvalue = [ 22.75]", shape="box"] ;
112 -> 113 ;
114 [label="mse = 0.0000\nsamples = 1\nvalue = [ 19.]", shape="box"] ;
112 -> 114 ;
115 [label="X[1] <= 114.0000\nmse = 4.84\nsamples = 2", shape="box"] ;
111 -> 115 ;
116 [label="mse = 0.0000\nsamples = 1\nvalue = [ 26.]", shape="box"] ;
115 -> 116 ;
117 [label="mse = -0.0000\nsamples = 1\nvalue = [ 21.6]", shape="box"] ;
115 -> 117 ;
118 [label="X[1] <= 132.5000\nmse = 15.9004359934\nsamples = 148", shape="box"] ;
0 -> 118 ;
119 [label="X[1] <= 131.0000\nmse = 11.3488248889\nsamples = 75", shape="box"] ;
118 -> 119 ;
120 [label="X[1] <= 127.5000\nmse = 9.27873630387\nsamples = 74", shape="box"] ;
119 -> 120 ;
121 [label="X[1] <= 74.0000\nmse = 8.54916881571\nsamples = 71", shape="box"] ;
120 -> 121 ;
122 [label="mse = 0.0000\nsamples = 1\nvalue = [ 15.]", shape="box"] ;
121 -> 122 ;
123 [label="X[1] <= 77.0000\nmse = 8.31068571429\nsamples = 70", shape="box"] ;
121 -> 123 ;
124 [label="mse = 0.0000\nsamples = 1\nvalue = [ 30.7]", shape="box"] ;
123 -> 124 ;
125 [label="X[1] <= 111.0000\nmse = 6.76663306028\nsamples = 69", shape="box"] ;
123 -> 125 ;
126 [label="X[0] <= 7.0000\nmse = 5.50627824019\nsamples = 58", shape="box"] ;
125 -> 126 ;
127 [label="X[1] <= 96.0000\nmse = 4.56381487603\nsamples = 55", shape="box"] ;
126 -> 127 ;
128 [label="X[1] <= 79.5000\nmse = 3.2511\nsamples = 20", shape="box"] ;
127 -> 128 ;
129 [label="mse = 0.0000\nsamples = 1\nvalue = [ 18.]", shape="box"] ;
128 -> 129 ;
130 [label="X[1] <= 83.0000\nmse = 3.1848199446\nsamples = 19", shape="box"] ;
128 -> 130 ;
131 [label="mse = 0.0000\nsamples = 1\nvalue = [ 24.]", shape="box"] ;
130 -> 131 ;
132 [label="X[1] <= 89.0000\nmse = 2.50555555556\nsamples = 18", shape="box"] ;
130 -> 132 ;
133 [label="X[1] <= 86.5000\nmse = 1.52816326531\nsamples = 7", shape="box"] ;
132 -> 133 ;
134 [label="mse = 1.4816\nsamples = 5\nvalue = [ 19.88]", shape="box"] ;
133 -> 134 ;
135 [label="mse = 1.2100\nsamples = 2\nvalue = [ 19.1]", shape="box"] ;
133 -> 135 ;
136 [label="X[1] <= 92.5000\nmse = 3.02776859504\nsamples = 11", shape="box"] ;
132 -> 136 ;
137 [label="mse = 1.6904\nsamples = 5\nvalue = [ 20.36]", shape="box"] ;
136 -> 137 ;
138 [label="mse = 4.0833\nsamples = 6\nvalue = [ 20.]", shape="box"] ;
136 -> 138 ;
139 [label="X[1] <= 102.5000\nmse = 4.98179591837\nsamples = 35", shape="box"] ;
127 -> 139 ;
140 [label="X[1] <= 97.5000\nmse = 3.43209876543\nsamples = 18", shape="box"] ;
139 -> 140 ;
141 [label="mse = 3.5556\nsamples = 3\nvalue = [ 19.33333333]", shape="box"] ;
140 -> 141 ;
142 [label="X[1] <= 99.0000\nmse = 3.28222222222\nsamples = 15", shape="box"] ;
140 -> 142 ;
143 [label="mse = 0.0000\nsamples = 1\nvalue = [ 18.5]", shape="box"] ;
142 -> 143 ;
144 [label="mse = 3.5166\nsamples = 14\nvalue = [ 18.46428571]", shape="box"] ;
142 -> 144 ;
145 [label="X[1] <= 107.5000\nmse = 6.0707266436\nsamples = 17", shape="box"] ;
139 -> 145 ;
146 [label="X[1] <= 106.0000\nmse = 2.02571428571\nsamples = 7", shape="box"] ;
145 -> 146 ;
147 [label="mse = 2.1281\nsamples = 6\nvalue = [ 19.71666667]", shape="box"] ;
146 -> 147 ;
148 [label="mse = -0.0000\nsamples = 1\nvalue = [ 21.]", shape="box"] ;
146 -> 148 ;
149 [label="X[1] <= 109.0000\nmse = 8.8261\nsamples = 10", shape="box"] ;
145 -> 149 ;
150 [label="mse = 0.0000\nsamples = 1\nvalue = [ 19.]", shape="box"] ;
149 -> 150 ;
151 [label="mse = 9.7795\nsamples = 9\nvalue = [ 19.52222222]", shape="box"] ;
149 -> 151 ;
152 [label="X[1] <= 107.5000\nmse = 7.57555555556\nsamples = 3", shape="box"] ;
126 -> 152 ;
153 [label="X[1] <= 97.5000\nmse = 1.8225\nsamples = 2", shape="box"] ;
152 -> 153 ;
154 [label="mse = 0.0000\nsamples = 1\nvalue = [ 23.9]", shape="box"] ;
153 -> 154 ;
155 [label="mse = 0.0000\nsamples = 1\nvalue = [ 26.6]", shape="box"] ;
153 -> 155 ;
156 [label="mse = -0.0000\nsamples = 1\nvalue = [ 19.9]", shape="box"] ;
152 -> 156 ;
157 [label="X[1] <= 118.0000\nmse = 11.5570247934\nsamples = 11", shape="box"] ;
125 -> 157 ;
158 [label="X[1] <= 113.5000\nmse = 5.006875\nsamples = 4", shape="box"] ;
157 -> 158 ;
159 [label="mse = 0.0000\nsamples = 1\nvalue = [ 22.]", shape="box"] ;
158 -> 159 ;
160 [label="X[1] <= 115.5000\nmse = 5.02888888889\nsamples = 3", shape="box"] ;
158 -> 160 ;
161 [label="mse = 7.0225\nsamples = 2\nvalue = [ 24.15]", shape="box"] ;
160 -> 161 ;
162 [label="mse = -0.0000\nsamples = 1\nvalue = [ 25.4]", shape="box"] ;
160 -> 162 ;
163 [label="X[0] <= 7.0000\nmse = 8.40775510204\nsamples = 7", shape="box"] ;
157 -> 163 ;
164 [label="X[1] <= 123.5000\nmse = 7.531875\nsamples = 4", shape="box"] ;
163 -> 164 ;
165 [label="X[1] <= 121.0000\nmse = 6.49555555556\nsamples = 3", shape="box"] ;
164 -> 165 ;
166 [label="mse = 9.3025\nsamples = 2\nvalue = [ 21.15]", shape="box"] ;
165 -> 166 ;
167 [label="mse = 0.0000\nsamples = 1\nvalue = [ 20.]", shape="box"] ;
165 -> 167 ;
168 [label="mse = 0.0000\nsamples = 1\nvalue = [ 17.]", shape="box"] ;
164 -> 168 ;
169 [label="X[1] <= 122.5000\nmse = 9.37555555556\nsamples = 3", shape="box"] ;
163 -> 169 ;
170 [label="mse = 0.0000\nsamples = 1\nvalue = [ 15.5]", shape="box"] ;
169 -> 170 ;
171 [label="mse = 3.6100\nsamples = 2\nvalue = [ 21.1]", shape="box"] ;
169 -> 171 ;
172 [label="mse = 2.6667\nsamples = 3\nvalue = [ 15.]", shape="box"] ;
120 -> 172 ;
173 [label="mse = -0.0000\nsamples = 1\nvalue = [ 32.7]", shape="box"] ;
119 -> 173 ;
174 [label="X[1] <= 172.5000\nmse = 4.21630699944\nsamples = 73", shape="box"] ;
118 -> 174 ;
175 [label="X[1] <= 146.5000\nmse = 3.21474048443\nsamples = 51", shape="box"] ;
174 -> 175 ;
176 [label="X[1] <= 141.0000\nmse = 3.48933333333\nsamples = 15", shape="box"] ;
175 -> 176 ;
177 [label="X[1] <= 138.0000\nmse = 2.95632653061\nsamples = 7", shape="box"] ;
176 -> 177 ;
178 [label="X[1] <= 135.0000\nmse = 1.21\nsamples = 2", shape="box"] ;
177 -> 178 ;
179 [label="mse = 0.0000\nsamples = 1\nvalue = [ 16.2]", shape="box"] ;
178 -> 179 ;
180 [label="mse = 0.0000\nsamples = 1\nvalue = [ 14.]", shape="box"] ;
178 -> 180 ;
181 [label="X[1] <= 139.5000\nmse = 3.2296\nsamples = 5", shape="box"] ;
177 -> 181 ;
182 [label="mse = 0.0000\nsamples = 1\nvalue = [ 18.1]", shape="box"] ;
181 -> 182 ;
183 [label="mse = 3.0469\nsamples = 4\nvalue = [ 15.875]", shape="box"] ;
181 -> 183 ;
184 [label="X[1] <= 143.5000\nmse = 3.83484375\nsamples = 8", shape="box"] ;
176 -> 184 ;
185 [label="mse = 0.0000\nsamples = 1\nvalue = [ 15.5]", shape="box"] ;
184 -> 185 ;
186 [label="mse = 4.3824\nsamples = 7\nvalue = [ 15.45714286]", shape="box"] ;
184 -> 186 ;
187 [label="X[0] <= 7.0000\nmse = 2.7\nsamples = 36", shape="box"] ;
175 -> 187 ;
188 [label="mse = 0.0000\nsamples = 1\nvalue = [ 17.7]", shape="box"] ;
187 -> 188 ;
189 [label="X[1] <= 152.5000\nmse = 2.48244897959\nsamples = 35", shape="box"] ;
187 -> 189 ;
190 [label="X[1] <= 148.5000\nmse = 2.98752834467\nsamples = 21", shape="box"] ;
189 -> 190 ;
191 [label="mse = 0.0000\nsamples = 1\nvalue = [ 14.]", shape="box"] ;
190 -> 191 ;
192 [label="X[1] <= 149.5000\nmse = 3.1025\nsamples = 20", shape="box"] ;
190 -> 192 ;
193 [label="mse = 0.0000\nsamples = 1\nvalue = [ 16.]", shape="box"] ;
192 -> 193 ;
194 [label="X[1] <= 151.0000\nmse = 3.19252077562\nsamples = 19", shape="box"] ;
192 -> 194 ;
195 [label="mse = 3.3650\nsamples = 18\nvalue = [ 14.80555556]", shape="box"] ;
194 -> 195 ;
196 [label="mse = 0.0000\nsamples = 1\nvalue = [ 14.5]", shape="box"] ;
194 -> 196 ;
197 [label="X[1] <= 168.5000\nmse = 1.22066326531\nsamples = 14", shape="box"] ;
189 -> 197 ;
198 [label="X[1] <= 166.0000\nmse = 0.691358024691\nsamples = 9", shape="box"] ;
197 -> 198 ;
199 [label="X[1] <= 159.0000\nmse = 0.4375\nsamples = 8", shape="box"] ;
198 -> 199 ;
200 [label="X[1] <= 154.0000\nmse = 0.25\nsamples = 4", shape="box"] ;
199 -> 200 ;
201 [label="mse = 0.0000\nsamples = 2\nvalue = [ 14.]", shape="box"] ;
200 -> 201 ;
202 [label="mse = 0.0000\nsamples = 2\nvalue = [ 13.]", shape="box"] ;
200 -> 202 ;
203 [label="X[1] <= 162.5000\nmse = 0.5\nsamples = 4", shape="box"] ;
199 -> 203 ;
204 [label="mse = 0.0000\nsamples = 1\nvalue = [ 14.]", shape="box"] ;
203 -> 204 ;
205 [label="mse = 0.6667\nsamples = 3\nvalue = [ 14.]", shape="box"] ;
203 -> 205 ;
206 [label="mse = 0.0000\nsamples = 1\nvalue = [ 12.]", shape="box"] ;
198 -> 206 ;
207 [label="mse = 1.6000\nsamples = 5\nvalue = [ 14.5]", shape="box"] ;
197 -> 207 ;
208 [label="X[1] <= 217.5000\nmse = 3.77117768595\nsamples = 22", shape="box"] ;
174 -> 208 ;
209 [label="X[1] <= 191.5000\nmse = 3.73533950617\nsamples = 18", shape="box"] ;
208 -> 209 ;
210 [label="X[1] <= 185.0000\nmse = 2.4225\nsamples = 10", shape="box"] ;
209 -> 210 ;
211 [label="X[1] <= 177.5000\nmse = 2.40816326531\nsamples = 7", shape="box"] ;
210 -> 211 ;
212 [label="mse = 0.2222\nsamples = 3\nvalue = [ 13.66666667]", shape="box"] ;
211 -> 212 ;
213 [label="mse = 3.6875\nsamples = 4\nvalue = [ 12.75]", shape="box"] ;
211 -> 213 ;
214 [label="mse = 1.1667\nsamples = 3\nvalue = [ 14.5]", shape="box"] ;
210 -> 214 ;
215 [label="X[1] <= 195.5000\nmse = 2.4375\nsamples = 8", shape="box"] ;
209 -> 215 ;
216 [label="mse = 0.0000\nsamples = 1\nvalue = [ 9.]", shape="box"] ;
215 -> 216 ;
217 [label="X[1] <= 212.5000\nmse = 1.95918367347\nsamples = 7", shape="box"] ;
215 -> 217 ;
218 [label="X[1] <= 199.0000\nmse = 0.5\nsamples = 4", shape="box"] ;
217 -> 218 ;
219 [label="mse = 0.0000\nsamples = 1\nvalue = [ 12.]", shape="box"] ;
218 -> 219 ;
220 [label="X[1] <= 204.0000\nmse = 0.222222222222\nsamples = 3", shape="box"] ;
218 -> 220 ;
221 [label="mse = 0.0000\nsamples = 1\nvalue = [ 10.]", shape="box"] ;
220 -> 221 ;
222 [label="mse = 0.0000\nsamples = 2\nvalue = [ 11.]", shape="box"] ;
220 -> 222 ;
223 [label="mse = 2.8889\nsamples = 3\nvalue = [ 12.33333333]", shape="box"] ;
217 -> 223 ;
224 [label="X[1] <= 227.5000\nmse = 0.75\nsamples = 4", shape="box"] ;
208 -> 224 ;
225 [label="mse = 0.0000\nsamples = 3\nvalue = [ 14.]", shape="box"] ;
224 -> 225 ;
226 [label="mse = 0.0000\nsamples = 1\nvalue = [ 16.]", shape="box"] ;
224 -> 226 ;
}